#pragma once
#include <cstdarg>
namespace Eloquent {
    namespace ML {
        namespace Port {
            class RandomForest {
                public:
                    /**
                    * Predict class for features vector
                    */
                    int predict(float *x) {
                        uint8_t votes[2] = { 0 };
                        // tree #1
                        if (x[1] <= -0.17133838683366776) {
                            if (x[0] <= 0.037578824907541275) {
                                if (x[4] <= -0.10762711986899376) {
                                    if (x[0] <= -0.10711681097745895) {
                                        votes[0] += 1;
                                    }

                                    else {
                                        if (x[1] <= -0.23686867952346802) {
                                            if (x[5] <= -0.2285052090883255) {
                                                votes[1] += 1;
                                            }

                                            else {
                                                votes[0] += 1;
                                            }
                                        }

                                        else {
                                            votes[0] += 1;
                                        }
                                    }
                                }

                                else {
                                    if (x[3] <= -0.1983053907752037) {
                                        if (x[0] <= -0.17206469178199768) {
                                            votes[0] += 1;
                                        }

                                        else {
                                            if (x[0] <= -0.12552013993263245) {
                                                votes[1] += 1;
                                            }

                                            else {
                                                votes[0] += 1;
                                            }
                                        }
                                    }

                                    else {
                                        if (x[0] <= -0.006906610680744052) {
                                            votes[0] += 1;
                                        }

                                        else {
                                            if (x[4] <= 0.12923728674650192) {
                                                if (x[0] <= -0.003517652628943324) {
                                                    votes[1] += 1;
                                                }

                                                else {
                                                    votes[0] += 1;
                                                }
                                            }

                                            else {
                                                votes[0] += 1;
                                            }
                                        }
                                    }
                                }
                            }

                            else {
                                if (x[1] <= -0.6332702040672302) {
                                    if (x[5] <= -0.02363847105880268) {
                                        votes[1] += 1;
                                    }

                                    else {
                                        if (x[4] <= -0.09046610072255135) {
                                            votes[1] += 1;
                                        }

                                        else {
                                            votes[0] += 1;
                                        }
                                    }
                                }

                                else {
                                    if (x[0] <= 0.05315087363123894) {
                                        if (x[1] <= -0.4653409272432327) {
                                            votes[1] += 1;
                                        }

                                        else {
                                            votes[0] += 1;
                                        }
                                    }

                                    else {
                                        votes[1] += 1;
                                    }
                                }
                            }
                        }

                        else {
                            if (x[0] <= 0.03453305270522833) {
                                if (x[0] <= -0.04418514855206013) {
                                    votes[0] += 1;
                                }

                                else {
                                    if (x[2] <= 0.18391307443380356) {
                                        votes[1] += 1;
                                    }

                                    else {
                                        votes[0] += 1;
                                    }
                                }
                            }

                            else {
                                votes[1] += 1;
                            }
                        }

                        // tree #2
                        if (x[2] <= -0.25409621000289917) {
                            if (x[4] <= -0.022245761938393116) {
                                if (x[0] <= -0.2512976787984371) {
                                    votes[0] += 1;
                                }

                                else {
                                    votes[1] += 1;
                                }
                            }

                            else {
                                if (x[0] <= -0.19896185910329223) {
                                    votes[0] += 1;
                                }

                                else {
                                    votes[1] += 1;
                                }
                            }
                        }

                        else {
                            if (x[0] <= 0.028655999340116978) {
                                if (x[5] <= -0.4880649000406265) {
                                    if (x[0] <= -0.103298868983984) {
                                        votes[0] += 1;
                                    }

                                    else {
                                        votes[1] += 1;
                                    }
                                }

                                else {
                                    if (x[3] <= -0.5961781293153763) {
                                        votes[1] += 1;
                                    }

                                    else {
                                        if (x[5] <= 0.49988412857055664) {
                                            if (x[3] <= 0.051198845729231834) {
                                                votes[0] += 1;
                                            }

                                            else {
                                                if (x[2] <= -0.14895294606685638) {
                                                    if (x[2] <= -0.16998159885406494) {
                                                        votes[0] += 1;
                                                    }

                                                    else {
                                                        votes[1] += 1;
                                                    }
                                                }

                                                else {
                                                    votes[0] += 1;
                                                }
                                            }
                                        }

                                        else {
                                            if (x[0] <= -0.14563940092921257) {
                                                votes[0] += 1;
                                            }

                                            else {
                                                votes[1] += 1;
                                            }
                                        }
                                    }
                                }
                            }

                            else {
                                if (x[0] <= 0.1307966187596321) {
                                    if (x[1] <= -0.2640782743692398) {
                                        if (x[0] <= 0.08939985185861588) {
                                            if (x[4] <= 0.03389830607920885) {
                                                votes[1] += 1;
                                            }

                                            else {
                                                if (x[3] <= 0.07301243767142296) {
                                                    if (x[3] <= -0.1361096128821373) {
                                                        votes[1] += 1;
                                                    }

                                                    else {
                                                        votes[0] += 1;
                                                    }
                                                }

                                                else {
                                                    votes[1] += 1;
                                                }
                                            }
                                        }

                                        else {
                                            votes[1] += 1;
                                        }
                                    }

                                    else {
                                        if (x[2] <= 0.3220888525247574) {
                                            votes[1] += 1;
                                        }

                                        else {
                                            votes[0] += 1;
                                        }
                                    }
                                }

                                else {
                                    votes[1] += 1;
                                }
                            }
                        }

                        // tree #3
                        if (x[3] <= 0.10852713510394096) {
                            if (x[5] <= 0.2224797159433365) {
                                if (x[3] <= -0.021993870846927166) {
                                    if (x[2] <= -0.25409621000289917) {
                                        if (x[5] <= -0.31239859759807587) {
                                            if (x[0] <= -0.2142765074968338) {
                                                votes[0] += 1;
                                            }

                                            else {
                                                votes[1] += 1;
                                            }
                                        }

                                        else {
                                            if (x[4] <= 0.02182203345000744) {
                                                if (x[0] <= -0.34854790195822716) {
                                                    votes[0] += 1;
                                                }

                                                else {
                                                    votes[1] += 1;
                                                }
                                            }

                                            else {
                                                if (x[2] <= -0.30193638801574707) {
                                                    if (x[0] <= -0.46716143703088164) {
                                                        votes[0] += 1;
                                                    }

                                                    else {
                                                        votes[1] += 1;
                                                    }
                                                }

                                                else {
                                                    if (x[0] <= -0.4067607559263706) {
                                                        votes[0] += 1;
                                                    }

                                                    else {
                                                        votes[1] += 1;
                                                    }
                                                }
                                            }
                                        }
                                    }

                                    else {
                                        if (x[0] <= 0.028655999340116978) {
                                            if (x[5] <= -0.6011587381362915) {
                                                if (x[3] <= -0.17306651920080185) {
                                                    if (x[2] <= -0.055901166051626205) {
                                                        votes[0] += 1;
                                                    }

                                                    else {
                                                        votes[1] += 1;
                                                    }
                                                }

                                                else {
                                                    votes[0] += 1;
                                                }
                                            }

                                            else {
                                                if (x[3] <= -0.6340364217758179) {
                                                    votes[1] += 1;
                                                }

                                                else {
                                                    if (x[2] <= 0.5541049540042877) {
                                                        if (x[0] <= -0.10209771990776062) {
                                                            votes[0] += 1;
                                                        }

                                                        else {
                                                            if (x[4] <= -0.2141949087381363) {
                                                                votes[1] += 1;
                                                            }

                                                            else {
                                                                votes[0] += 1;
                                                            }
                                                        }
                                                    }

                                                    else {
                                                        if (x[2] <= 0.5638307332992554) {
                                                            votes[1] += 1;
                                                        }

                                                        else {
                                                            votes[0] += 1;
                                                        }
                                                    }
                                                }
                                            }
                                        }

                                        else {
                                            if (x[4] <= 0.11779660731554031) {
                                                if (x[5] <= -0.18980301916599274) {
                                                    if (x[5] <= -0.2210892215371132) {
                                                        votes[1] += 1;
                                                    }

                                                    else {
                                                        votes[0] += 1;
                                                    }
                                                }

                                                else {
                                                    if (x[1] <= -0.6332702040672302) {
                                                        votes[0] += 1;
                                                    }

                                                    else {
                                                        votes[1] += 1;
                                                    }
                                                }
                                            }

                                            else {
                                                if (x[4] <= 0.20338983088731766) {
                                                    if (x[2] <= 0.11145185120403767) {
                                                        votes[1] += 1;
                                                    }

                                                    else {
                                                        votes[0] += 1;
                                                    }
                                                }

                                                else {
                                                    votes[1] += 1;
                                                }
                                            }
                                        }
                                    }
                                }

                                else {
                                    if (x[2] <= -0.22956278175115585) {
                                        if (x[1] <= -0.49059343338012695) {
                                            if (x[3] <= 0.029204976744949818) {
                                                if (x[0] <= -0.14422374963760376) {
                                                    votes[0] += 1;
                                                }

                                                else {
                                                    votes[1] += 1;
                                                }
                                            }

                                            else {
                                                votes[0] += 1;
                                            }
                                        }

                                        else {
                                            if (x[3] <= 0.08545159548521042) {
                                                votes[1] += 1;
                                            }

                                            else {
                                                if (x[2] <= -0.3469727486371994) {
                                                    votes[1] += 1;
                                                }

                                                else {
                                                    votes[0] += 1;
                                                }
                                            }
                                        }
                                    }

                                    else {
                                        if (x[2] <= 0.02470866497606039) {
                                            if (x[3] <= 0.012979989405721426) {
                                                if (x[1] <= -0.5379419028759003) {
                                                    if (x[5] <= -0.07508690655231476) {
                                                        if (x[5] <= -0.07925840094685555) {
                                                            votes[0] += 1;
                                                        }

                                                        else {
                                                            votes[1] += 1;
                                                        }
                                                    }

                                                    else {
                                                        votes[0] += 1;
                                                    }
                                                }

                                                else {
                                                    if (x[2] <= -0.07403837889432907) {
                                                        votes[0] += 1;
                                                    }

                                                    else {
                                                        if (x[0] <= -0.35416756570339203) {
                                                            votes[0] += 1;
                                                        }

                                                        else {
                                                            votes[1] += 1;
                                                        }
                                                    }
                                                }
                                            }

                                            else {
                                                if (x[3] <= 0.06183522567152977) {
                                                    if (x[1] <= -0.5866792798042297) {
                                                        votes[0] += 1;
                                                    }

                                                    else {
                                                        if (x[2] <= -0.21431700140237808) {
                                                            votes[0] += 1;
                                                        }

                                                        else {
                                                            if (x[0] <= -0.3282141627278179) {
                                                                votes[0] += 1;
                                                            }

                                                            else {
                                                                votes[1] += 1;
                                                            }
                                                        }
                                                    }
                                                }

                                                else {
                                                    if (x[4] <= -0.02563559263944626) {
                                                        votes[1] += 1;
                                                    }

                                                    else {
                                                        if (x[0] <= 0.1212303196080029) {
                                                            votes[0] += 1;
                                                        }

                                                        else {
                                                            votes[1] += 1;
                                                        }
                                                    }
                                                }
                                            }
                                        }

                                        else {
                                            if (x[2] <= 0.23315517604351044) {
                                                if (x[4] <= 0.05805084854364395) {
                                                    if (x[4] <= 0.05614406801760197) {
                                                        if (x[5] <= -0.32097335159778595) {
                                                            if (x[5] <= -0.38818076252937317) {
                                                                votes[0] += 1;
                                                            }

                                                            else {
                                                                votes[1] += 1;
                                                            }
                                                        }

                                                        else {
                                                            if (x[5] <= 0.047972189262509346) {
                                                                votes[0] += 1;
                                                            }

                                                            else {
                                                                if (x[0] <= -0.1256488375365734) {
                                                                    votes[0] += 1;
                                                                }

                                                                else {
                                                                    votes[1] += 1;
                                                                }
                                                            }
                                                        }
                                                    }

                                                    else {
                                                        votes[1] += 1;
                                                    }
                                                }

                                                else {
                                                    votes[0] += 1;
                                                }
                                            }

                                            else {
                                                if (x[4] <= -0.3637711852788925) {
                                                    votes[1] += 1;
                                                }

                                                else {
                                                    votes[0] += 1;
                                                }
                                            }
                                        }
                                    }
                                }
                            }

                            else {
                                if (x[1] <= -0.3938762694597244) {
                                    votes[0] += 1;
                                }

                                else {
                                    if (x[1] <= -0.2997474670410156) {
                                        if (x[5] <= 0.26998841762542725) {
                                            votes[1] += 1;
                                        }

                                        else {
                                            if (x[2] <= -0.014632433652877808) {
                                                votes[1] += 1;
                                            }

                                            else {
                                                votes[0] += 1;
                                            }
                                        }
                                    }

                                    else {
                                        votes[1] += 1;
                                    }
                                }
                            }
                        }

                        else {
                            if (x[5] <= -0.05608342960476875) {
                                if (x[0] <= -0.01256917417049408) {
                                    votes[0] += 1;
                                }

                                else {
                                    votes[1] += 1;
                                }
                            }

                            else {
                                if (x[1] <= -0.4756944477558136) {
                                    if (x[1] <= -0.5861110985279083) {
                                        votes[0] += 1;
                                    }

                                    else {
                                        if (x[1] <= -0.5755050480365753) {
                                            votes[1] += 1;
                                        }

                                        else {
                                            votes[0] += 1;
                                        }
                                    }
                                }

                                else {
                                    if (x[4] <= 0.6091101467609406) {
                                        if (x[3] <= 0.13737154752016068) {
                                            if (x[4] <= -0.03919491544365883) {
                                                votes[0] += 1;
                                            }

                                            else {
                                                votes[1] += 1;
                                            }
                                        }

                                        else {
                                            if (x[4] <= 0.0334745766595006) {
                                                votes[1] += 1;
                                            }

                                            else {
                                                if (x[3] <= 0.22841175645589828) {
                                                    votes[1] += 1;
                                                }

                                                else {
                                                    if (x[1] <= -0.3941919207572937) {
                                                        votes[0] += 1;
                                                    }

                                                    else {
                                                        if (x[2] <= 0.22745991498231888) {
                                                            votes[1] += 1;
                                                        }

                                                        else {
                                                            if (x[0] <= 0.23461027443408966) {
                                                                votes[0] += 1;
                                                            }

                                                            else {
                                                                votes[1] += 1;
                                                            }
                                                        }
                                                    }
                                                }
                                            }
                                        }
                                    }

                                    else {
                                        votes[0] += 1;
                                    }
                                }
                            }
                        }

                        // tree #4
                        if (x[2] <= -0.25006571412086487) {
                            if (x[0] <= -0.05006220564246178) {
                                votes[0] += 1;
                            }

                            else {
                                votes[1] += 1;
                            }
                        }

                        else {
                            if (x[2] <= -0.13388241827487946) {
                                if (x[0] <= -0.05907082557678223) {
                                    votes[0] += 1;
                                }

                                else {
                                    if (x[1] <= -0.6620580852031708) {
                                        votes[0] += 1;
                                    }

                                    else {
                                        votes[1] += 1;
                                    }
                                }
                            }

                            else {
                                if (x[5] <= -0.4880649000406265) {
                                    if (x[4] <= -0.5161016881465912) {
                                        votes[0] += 1;
                                    }

                                    else {
                                        if (x[1] <= -0.4016414135694504) {
                                            votes[1] += 1;
                                        }

                                        else {
                                            if (x[3] <= -0.29204975068569183) {
                                                votes[1] += 1;
                                            }

                                            else {
                                                votes[0] += 1;
                                            }
                                        }
                                    }
                                }

                                else {
                                    if (x[1] <= -0.44583334028720856) {
                                        if (x[0] <= 0.037578824907541275) {
                                            votes[0] += 1;
                                        }

                                        else {
                                            votes[1] += 1;
                                        }
                                    }

                                    else {
                                        if (x[2] <= 0.1479015126824379) {
                                            if (x[2] <= -0.029352492652833462) {
                                                if (x[4] <= 0.06843220442533493) {
                                                    if (x[0] <= -0.31259921193122864) {
                                                        votes[0] += 1;
                                                    }

                                                    else {
                                                        votes[1] += 1;
                                                    }
                                                }

                                                else {
                                                    if (x[1] <= -0.1911616176366806) {
                                                        if (x[3] <= 0.2022714987397194) {
                                                            if (x[0] <= -0.348333403468132) {
                                                                votes[0] += 1;
                                                            }

                                                            else {
                                                                votes[1] += 1;
                                                            }
                                                        }

                                                        else {
                                                            votes[0] += 1;
                                                        }
                                                    }

                                                    else {
                                                        if (x[3] <= 0.004146385355852544) {
                                                            votes[0] += 1;
                                                        }

                                                        else {
                                                            if (x[5] <= 0.029663962544873357) {
                                                                votes[0] += 1;
                                                            }

                                                            else {
                                                                votes[1] += 1;
                                                            }
                                                        }
                                                    }
                                                }
                                            }

                                            else {
                                                if (x[0] <= 0.02071983367204666) {
                                                    votes[0] += 1;
                                                }

                                                else {
                                                    votes[1] += 1;
                                                }
                                            }
                                        }

                                        else {
                                            if (x[4] <= -0.46864408254623413) {
                                                votes[1] += 1;
                                            }

                                            else {
                                                if (x[3] <= -0.2727600485086441) {
                                                    if (x[1] <= -0.17575757578015327) {
                                                        votes[0] += 1;
                                                    }

                                                    else {
                                                        votes[1] += 1;
                                                    }
                                                }

                                                else {
                                                    if (x[4] <= 0.1866525411605835) {
                                                        if (x[2] <= 0.17848068475723267) {
                                                            if (x[0] <= -0.13727425038814545) {
                                                                votes[0] += 1;
                                                            }

                                                            else {
                                                                votes[1] += 1;
                                                            }
                                                        }

                                                        else {
                                                            votes[0] += 1;
                                                        }
                                                    }

                                                    else {
                                                        if (x[4] <= 0.1963983029127121) {
                                                            votes[1] += 1;
                                                        }

                                                        else {
                                                            if (x[3] <= 0.16188930720090866) {
                                                                votes[0] += 1;
                                                            }

                                                            else {
                                                                if (x[2] <= 0.19626741856336594) {
                                                                    votes[0] += 1;
                                                                }

                                                                else {
                                                                    votes[1] += 1;
                                                                }
                                                            }
                                                        }
                                                    }
                                                }
                                            }
                                        }
                                    }
                                }
                            }
                        }

                        // tree #5
                        if (x[0] <= 0.04774569906294346) {
                            if (x[3] <= -0.6540472507476807) {
                                votes[1] += 1;
                            }

                            else {
                                if (x[0] <= -0.006348934257403016) {
                                    if (x[5] <= -0.529316321015358) {
                                        if (x[1] <= -0.5484848320484161) {
                                            votes[1] += 1;
                                        }

                                        else {
                                            votes[0] += 1;
                                        }
                                    }

                                    else {
                                        if (x[0] <= -0.0435416754335165) {
                                            votes[0] += 1;
                                        }

                                        else {
                                            if (x[2] <= -0.22842372953891754) {
                                                votes[1] += 1;
                                            }

                                            else {
                                                votes[0] += 1;
                                            }
                                        }
                                    }
                                }

                                else {
                                    if (x[2] <= -0.25330762565135956) {
                                        votes[1] += 1;
                                    }

                                    else {
                                        if (x[3] <= 0.04506940580904484) {
                                            votes[0] += 1;
                                        }

                                        else {
                                            if (x[1] <= -0.46742425858974457) {
                                                votes[0] += 1;
                                            }

                                            else {
                                                votes[1] += 1;
                                            }
                                        }
                                    }
                                }
                            }
                        }

                        else {
                            if (x[2] <= 0.20546744763851166) {
                                if (x[1] <= -0.6332702040672302) {
                                    if (x[3] <= -0.16369208693504333) {
                                        votes[0] += 1;
                                    }

                                    else {
                                        votes[1] += 1;
                                    }
                                }

                                else {
                                    votes[1] += 1;
                                }
                            }

                            else {
                                if (x[4] <= -0.209322027862072) {
                                    votes[1] += 1;
                                }

                                else {
                                    if (x[5] <= 0.04611819237470627) {
                                        votes[0] += 1;
                                    }

                                    else {
                                        votes[1] += 1;
                                    }
                                }
                            }
                        }

                        // tree #6
                        if (x[1] <= -0.39501261711120605) {
                            if (x[2] <= -0.15753965079784393) {
                                if (x[1] <= -0.4925505071878433) {
                                    if (x[4] <= 0.004449152504093945) {
                                        if (x[0] <= -0.23349492251873016) {
                                            votes[0] += 1;
                                        }

                                        else {
                                            votes[1] += 1;
                                        }
                                    }

                                    else {
                                        if (x[1] <= -0.5230429172515869) {
                                            votes[0] += 1;
                                        }

                                        else {
                                            if (x[4] <= 0.06588983163237572) {
                                                votes[1] += 1;
                                            }

                                            else {
                                                votes[0] += 1;
                                            }
                                        }
                                    }
                                }

                                else {
                                    if (x[5] <= -0.2984936237335205) {
                                        votes[0] += 1;
                                    }

                                    else {
                                        if (x[1] <= -0.45827020704746246) {
                                            if (x[5] <= -0.030127462930977345) {
                                                if (x[5] <= -0.2053302377462387) {
                                                    votes[1] += 1;
                                                }

                                                else {
                                                    votes[0] += 1;
                                                }
                                            }

                                            else {
                                                votes[1] += 1;
                                            }
                                        }

                                        else {
                                            if (x[1] <= -0.43377524614334106) {
                                                if (x[2] <= -0.31174975633621216) {
                                                    votes[1] += 1;
                                                }

                                                else {
                                                    if (x[4] <= 0.0023305099457502365) {
                                                        votes[0] += 1;
                                                    }

                                                    else {
                                                        votes[1] += 1;
                                                    }
                                                }
                                            }

                                            else {
                                                votes[1] += 1;
                                            }
                                        }
                                    }
                                }
                            }

                            else {
                                if (x[0] <= 0.04667324386537075) {
                                    if (x[3] <= -0.183342345058918) {
                                        if (x[1] <= -0.5950757563114166) {
                                            votes[1] += 1;
                                        }

                                        else {
                                            if (x[4] <= 0.08665254153311253) {
                                                votes[0] += 1;
                                            }

                                            else {
                                                if (x[3] <= -0.21849648654460907) {
                                                    votes[0] += 1;
                                                }

                                                else {
                                                    votes[1] += 1;
                                                }
                                            }
                                        }
                                    }

                                    else {
                                        votes[0] += 1;
                                    }
                                }

                                else {
                                    if (x[3] <= -0.16315124928951263) {
                                        votes[0] += 1;
                                    }

                                    else {
                                        votes[1] += 1;
                                    }
                                }
                            }
                        }

                        else {
                            if (x[1] <= -0.135795459151268) {
                                if (x[0] <= 0.044099352322518826) {
                                    if (x[5] <= -0.6266512274742126) {
                                        if (x[3] <= -0.45357850193977356) {
                                            if (x[4] <= -0.37944914028048515) {
                                                votes[0] += 1;
                                            }

                                            else {
                                                votes[1] += 1;
                                            }
                                        }

                                        else {
                                            votes[0] += 1;
                                        }
                                    }

                                    else {
                                        votes[0] += 1;
                                    }
                                }

                                else {
                                    if (x[5] <= -0.16709154099225998) {
                                        if (x[1] <= -0.3576388955116272) {
                                            votes[0] += 1;
                                        }

                                        else {
                                            if (x[2] <= 0.20643126871436834) {
                                                votes[1] += 1;
                                            }

                                            else {
                                                if (x[2] <= 0.5079295635223389) {
                                                    votes[0] += 1;
                                                }

                                                else {
                                                    votes[1] += 1;
                                                }
                                            }
                                        }
                                    }

                                    else {
                                        votes[1] += 1;
                                    }
                                }
                            }

                            else {
                                if (x[5] <= -0.42711471021175385) {
                                    votes[0] += 1;
                                }

                                else {
                                    if (x[2] <= -0.2555857449769974) {
                                        if (x[1] <= -0.09766414389014244) {
                                            if (x[1] <= -0.09797979891300201) {
                                                if (x[3] <= -0.06868577748537064) {
                                                    if (x[5] <= 0.01367323286831379) {
                                                        votes[0] += 1;
                                                    }

                                                    else {
                                                        votes[1] += 1;
                                                    }
                                                }

                                                else {
                                                    votes[1] += 1;
                                                }
                                            }

                                            else {
                                                votes[0] += 1;
                                            }
                                        }

                                        else {
                                            if (x[2] <= -0.32165074348449707) {
                                                if (x[1] <= 0.28118686378002167) {
                                                    votes[1] += 1;
                                                }

                                                else {
                                                    if (x[0] <= -0.26442453265190125) {
                                                        votes[0] += 1;
                                                    }

                                                    else {
                                                        votes[1] += 1;
                                                    }
                                                }
                                            }

                                            else {
                                                if (x[3] <= 0.06291688978672028) {
                                                    if (x[1] <= 0.31805555522441864) {
                                                        if (x[4] <= 0.015042372979223728) {
                                                            if (x[2] <= -0.28441251814365387) {
                                                                votes[1] += 1;
                                                            }

                                                            else {
                                                                votes[0] += 1;
                                                            }
                                                        }

                                                        else {
                                                            votes[1] += 1;
                                                        }
                                                    }

                                                    else {
                                                        votes[0] += 1;
                                                    }
                                                }

                                                else {
                                                    if (x[2] <= -0.30701830983161926) {
                                                        votes[0] += 1;
                                                    }

                                                    else {
                                                        votes[1] += 1;
                                                    }
                                                }
                                            }
                                        }
                                    }

                                    else {
                                        if (x[0] <= 0.06190210487693548) {
                                            if (x[4] <= 0.18453390151262283) {
                                                votes[0] += 1;
                                            }

                                            else {
                                                if (x[5] <= -0.04032444953918457) {
                                                    if (x[0] <= -0.04161125607788563) {
                                                        votes[1] += 1;
                                                    }

                                                    else {
                                                        votes[0] += 1;
                                                    }
                                                }

                                                else {
                                                    votes[0] += 1;
                                                }
                                            }
                                        }

                                        else {
                                            votes[1] += 1;
                                        }
                                    }
                                }
                            }
                        }

                        // tree #7
                        if (x[2] <= -0.23280469328165054) {
                            if (x[0] <= -0.07884689792990685) {
                                votes[0] += 1;
                            }

                            else {
                                votes[1] += 1;
                            }
                        }

                        else {
                            if (x[0] <= 0.05340826138854027) {
                                if (x[5] <= -0.5615295469760895) {
                                    if (x[1] <= -0.47285354137420654) {
                                        votes[1] += 1;
                                    }

                                    else {
                                        if (x[3] <= -0.4701640456914902) {
                                            votes[1] += 1;
                                        }

                                        else {
                                            votes[0] += 1;
                                        }
                                    }
                                }

                                else {
                                    if (x[3] <= -0.5938345193862915) {
                                        votes[1] += 1;
                                    }

                                    else {
                                        if (x[0] <= 0.03762172348797321) {
                                            if (x[5] <= 0.5010428875684738) {
                                                votes[0] += 1;
                                            }

                                            else {
                                                if (x[5] <= 0.534646600484848) {
                                                    votes[1] += 1;
                                                }

                                                else {
                                                    votes[0] += 1;
                                                }
                                            }
                                        }

                                        else {
                                            if (x[3] <= 0.07301243767142296) {
                                                votes[0] += 1;
                                            }

                                            else {
                                                votes[1] += 1;
                                            }
                                        }
                                    }
                                }
                            }

                            else {
                                if (x[2] <= 0.3130640536546707) {
                                    if (x[1] <= -0.6332702040672302) {
                                        if (x[3] <= -0.16369208693504333) {
                                            votes[0] += 1;
                                        }

                                        else {
                                            votes[1] += 1;
                                        }
                                    }

                                    else {
                                        votes[1] += 1;
                                    }
                                }

                                else {
                                    if (x[4] <= 0.19682203978300095) {
                                        votes[0] += 1;
                                    }

                                    else {
                                        votes[1] += 1;
                                    }
                                }
                            }
                        }

                        // tree #8
                        if (x[0] <= 0.05315087363123894) {
                            if (x[2] <= -0.3327784091234207) {
                                if (x[1] <= -0.5006313174962997) {
                                    votes[1] += 1;
                                }

                                else {
                                    votes[0] += 1;
                                }
                            }

                            else {
                                if (x[2] <= -0.16121965646743774) {
                                    if (x[4] <= 0.23877118527889252) {
                                        if (x[0] <= -0.018703616922721267) {
                                            votes[0] += 1;
                                        }

                                        else {
                                            votes[1] += 1;
                                        }
                                    }

                                    else {
                                        votes[1] += 1;
                                    }
                                }

                                else {
                                    if (x[5] <= -0.3707995265722275) {
                                        if (x[1] <= -0.6077651679515839) {
                                            votes[1] += 1;
                                        }

                                        else {
                                            if (x[2] <= 0.005169542506337166) {
                                                if (x[4] <= -0.2417372763156891) {
                                                    votes[0] += 1;
                                                }

                                                else {
                                                    votes[1] += 1;
                                                }
                                            }

                                            else {
                                                votes[0] += 1;
                                            }
                                        }
                                    }

                                    else {
                                        if (x[3] <= -0.5938345193862915) {
                                            votes[1] += 1;
                                        }

                                        else {
                                            votes[0] += 1;
                                        }
                                    }
                                }
                            }
                        }

                        else {
                            if (x[0] <= 0.09870876371860504) {
                                if (x[1] <= -0.4327020198106766) {
                                    if (x[4] <= 0.20402543246746063) {
                                        votes[0] += 1;
                                    }

                                    else {
                                        votes[1] += 1;
                                    }
                                }

                                else {
                                    if (x[2] <= 0.07351265847682953) {
                                        votes[1] += 1;
                                    }

                                    else {
                                        votes[0] += 1;
                                    }
                                }
                            }

                            else {
                                if (x[1] <= -0.3606060743331909) {
                                    if (x[1] <= -0.36123737692832947) {
                                        votes[1] += 1;
                                    }

                                    else {
                                        votes[0] += 1;
                                    }
                                }

                                else {
                                    votes[1] += 1;
                                }
                            }
                        }

                        // tree #9
                        if (x[2] <= -0.20213790982961655) {
                            if (x[0] <= -0.0136416289024055) {
                                if (x[4] <= 0.18283898383378983) {
                                    votes[0] += 1;
                                }

                                else {
                                    if (x[0] <= -0.11230749264359474) {
                                        votes[0] += 1;
                                    }

                                    else {
                                        votes[1] += 1;
                                    }
                                }
                            }

                            else {
                                votes[1] += 1;
                            }
                        }

                        else {
                            if (x[2] <= -0.11267852410674095) {
                                if (x[4] <= 0.11186440661549568) {
                                    if (x[1] <= -0.3636363595724106) {
                                        if (x[0] <= 0.10115396231412888) {
                                            votes[0] += 1;
                                        }

                                        else {
                                            votes[1] += 1;
                                        }
                                    }

                                    else {
                                        if (x[1] <= 0.13857323676347733) {
                                            if (x[4] <= -0.21334745734930038) {
                                                if (x[1] <= -0.3321969658136368) {
                                                    votes[1] += 1;
                                                }

                                                else {
                                                    votes[0] += 1;
                                                }
                                            }

                                            else {
                                                if (x[0] <= -0.42756637348793447) {
                                                    votes[0] += 1;
                                                }

                                                else {
                                                    votes[1] += 1;
                                                }
                                            }
                                        }

                                        else {
                                            votes[0] += 1;
                                        }
                                    }
                                }

                                else {
                                    if (x[2] <= -0.17944449186325073) {
                                        if (x[4] <= 0.15190678089857101) {
                                            votes[1] += 1;
                                        }

                                        else {
                                            votes[0] += 1;
                                        }
                                    }

                                    else {
                                        votes[1] += 1;
                                    }
                                }
                            }

                            else {
                                if (x[1] <= -0.5610479712486267) {
                                    if (x[4] <= -0.23601695150136948) {
                                        if (x[1] <= -0.6292297840118408) {
                                            votes[1] += 1;
                                        }

                                        else {
                                            if (x[3] <= -0.07806020975112915) {
                                                votes[1] += 1;
                                            }

                                            else {
                                                votes[0] += 1;
                                            }
                                        }
                                    }

                                    else {
                                        if (x[2] <= 0.58004030585289) {
                                            if (x[0] <= -0.020805628038942814) {
                                                votes[0] += 1;
                                            }

                                            else {
                                                if (x[3] <= 0.03497386077651754) {
                                                    votes[1] += 1;
                                                }

                                                else {
                                                    votes[0] += 1;
                                                }
                                            }
                                        }

                                        else {
                                            votes[1] += 1;
                                        }
                                    }
                                }

                                else {
                                    if (x[2] <= 0.1300271600484848) {
                                        if (x[1] <= -0.005492424592375755) {
                                            if (x[1] <= -0.15940656512975693) {
                                                if (x[5] <= 0.0032444960161228664) {
                                                    if (x[5] <= -0.036152953281998634) {
                                                        if (x[0] <= -0.34970613569021225) {
                                                            votes[0] += 1;
                                                        }

                                                        else {
                                                            votes[1] += 1;
                                                        }
                                                    }

                                                    else {
                                                        if (x[3] <= 0.03893996775150299) {
                                                            if (x[2] <= -0.09979847446084023) {
                                                                votes[1] += 1;
                                                            }

                                                            else {
                                                                if (x[2] <= 0.11828616261482239) {
                                                                    if (x[0] <= 0.144910121220164) {
                                                                        votes[0] += 1;
                                                                    }

                                                                    else {
                                                                        votes[1] += 1;
                                                                    }
                                                                }

                                                                else {
                                                                    votes[1] += 1;
                                                                }
                                                            }
                                                        }

                                                        else {
                                                            votes[1] += 1;
                                                        }
                                                    }
                                                }

                                                else {
                                                    if (x[4] <= -0.022881356067955494) {
                                                        if (x[0] <= 0.000900857150554657) {
                                                            votes[0] += 1;
                                                        }

                                                        else {
                                                            votes[1] += 1;
                                                        }
                                                    }

                                                    else {
                                                        votes[1] += 1;
                                                    }
                                                }
                                            }

                                            else {
                                                if (x[4] <= 0.008686440996825695) {
                                                    if (x[2] <= -0.04012967646121979) {
                                                        votes[0] += 1;
                                                    }

                                                    else {
                                                        votes[1] += 1;
                                                    }
                                                }

                                                else {
                                                    votes[1] += 1;
                                                }
                                            }
                                        }

                                        else {
                                            if (x[4] <= 0.28453389555215836) {
                                                votes[0] += 1;
                                            }

                                            else {
                                                votes[1] += 1;
                                            }
                                        }
                                    }

                                    else {
                                        if (x[3] <= -0.3744366317987442) {
                                            votes[1] += 1;
                                        }

                                        else {
                                            if (x[0] <= 0.1271502673625946) {
                                                votes[0] += 1;
                                            }

                                            else {
                                                votes[1] += 1;
                                            }
                                        }
                                    }
                                }
                            }
                        }

                        // tree #10
                        if (x[3] <= 0.09140075743198395) {
                            if (x[3] <= -0.13340544700622559) {
                                if (x[1] <= -0.07032828405499458) {
                                    if (x[0] <= 0.03877997491508722) {
                                        if (x[5] <= -0.5063731074333191) {
                                            if (x[2] <= -0.055901166051626205) {
                                                votes[0] += 1;
                                            }

                                            else {
                                                votes[1] += 1;
                                            }
                                        }

                                        else {
                                            if (x[3] <= -0.5938345193862915) {
                                                votes[1] += 1;
                                            }

                                            else {
                                                votes[0] += 1;
                                            }
                                        }
                                    }

                                    else {
                                        votes[1] += 1;
                                    }
                                }

                                else {
                                    if (x[4] <= -0.1258474588394165) {
                                        votes[0] += 1;
                                    }

                                    else {
                                        if (x[4] <= -0.07966101542115211) {
                                            if (x[4] <= -0.09025423601269722) {
                                                votes[1] += 1;
                                            }

                                            else {
                                                votes[0] += 1;
                                            }
                                        }

                                        else {
                                            if (x[0] <= -0.2796962931752205) {
                                                votes[0] += 1;
                                            }

                                            else {
                                                votes[1] += 1;
                                            }
                                        }
                                    }
                                }
                            }

                            else {
                                if (x[0] <= 0.05340826138854027) {
                                    if (x[0] <= 0.037578824907541275) {
                                        if (x[2] <= -0.23604661971330643) {
                                            if (x[2] <= -0.2374485284090042) {
                                                if (x[0] <= -0.28265624260529876) {
                                                    votes[0] += 1;
                                                }

                                                else {
                                                    votes[1] += 1;
                                                }
                                            }

                                            else {
                                                votes[1] += 1;
                                            }
                                        }

                                        else {
                                            votes[0] += 1;
                                        }
                                    }

                                    else {
                                        if (x[3] <= -0.03767802473157644) {
                                            votes[0] += 1;
                                        }

                                        else {
                                            if (x[3] <= 0.014061654917895794) {
                                                votes[1] += 1;
                                            }

                                            else {
                                                votes[0] += 1;
                                            }
                                        }
                                    }
                                }

                                else {
                                    if (x[4] <= 0.1485169529914856) {
                                        if (x[5] <= -0.20556199550628662) {
                                            if (x[0] <= 0.162026509642601) {
                                                if (x[0] <= 0.12796533852815628) {
                                                    votes[1] += 1;
                                                }

                                                else {
                                                    votes[0] += 1;
                                                }
                                            }

                                            else {
                                                votes[1] += 1;
                                            }
                                        }

                                        else {
                                            votes[1] += 1;
                                        }
                                    }

                                    else {
                                        if (x[0] <= 0.11072026193141937) {
                                            if (x[0] <= 0.07923297956585884) {
                                                votes[1] += 1;
                                            }

                                            else {
                                                votes[0] += 1;
                                            }
                                        }

                                        else {
                                            votes[1] += 1;
                                        }
                                    }
                                }
                            }
                        }

                        else {
                            if (x[0] <= -0.015958132222294807) {
                                votes[0] += 1;
                            }

                            else {
                                votes[1] += 1;
                            }
                        }

                        // tree #11
                        if (x[0] <= 0.025867615826427937) {
                            if (x[3] <= -0.6540472507476807) {
                                votes[1] += 1;
                            }

                            else {
                                if (x[2] <= -0.3305003046989441) {
                                    if (x[0] <= -0.19896185910329223) {
                                        votes[0] += 1;
                                    }

                                    else {
                                        votes[1] += 1;
                                    }
                                }

                                else {
                                    if (x[5] <= -0.4831981509923935) {
                                        if (x[0] <= -0.2047102227807045) {
                                            votes[0] += 1;
                                        }

                                        else {
                                            votes[1] += 1;
                                        }
                                    }

                                    else {
                                        if (x[1] <= -0.029040404595434666) {
                                            if (x[5] <= -0.05005793645977974) {
                                                if (x[2] <= -0.15946727246046066) {
                                                    if (x[0] <= -0.03985243081115186) {
                                                        votes[0] += 1;
                                                    }

                                                    else {
                                                        votes[1] += 1;
                                                    }
                                                }

                                                else {
                                                    votes[0] += 1;
                                                }
                                            }

                                            else {
                                                votes[0] += 1;
                                            }
                                        }

                                        else {
                                            if (x[1] <= -0.023421717807650566) {
                                                votes[1] += 1;
                                            }

                                            else {
                                                votes[0] += 1;
                                            }
                                        }
                                    }
                                }
                            }
                        }

                        else {
                            if (x[0] <= 0.1307966187596321) {
                                if (x[3] <= -0.05462412163615227) {
                                    if (x[1] <= -0.338131308555603) {
                                        if (x[4] <= 0.023940677754580975) {
                                            votes[1] += 1;
                                        }

                                        else {
                                            votes[0] += 1;
                                        }
                                    }

                                    else {
                                        if (x[1] <= -0.19292929023504257) {
                                            votes[1] += 1;
                                        }

                                        else {
                                            if (x[3] <= -0.1741481814533472) {
                                                votes[1] += 1;
                                            }

                                            else {
                                                votes[0] += 1;
                                            }
                                        }
                                    }
                                }

                                else {
                                    if (x[2] <= 0.30552878975868225) {
                                        votes[1] += 1;
                                    }

                                    else {
                                        votes[0] += 1;
                                    }
                                }
                            }

                            else {
                                votes[1] += 1;
                            }
                        }

                        // tree #12
                        if (x[1] <= -0.19602273404598236) {
                            if (x[0] <= 0.03431856166571379) {
                                if (x[5] <= -0.6266512274742126) {
                                    if (x[1] <= -0.5484848320484161) {
                                        votes[1] += 1;
                                    }

                                    else {
                                        if (x[5] <= -0.6739281713962555) {
                                            votes[0] += 1;
                                        }

                                        else {
                                            votes[1] += 1;
                                        }
                                    }
                                }

                                else {
                                    if (x[2] <= -0.15876631438732147) {
                                        if (x[2] <= -0.16157013922929764) {
                                            if (x[4] <= 0.12690677493810654) {
                                                votes[0] += 1;
                                            }

                                            else {
                                                if (x[1] <= -0.48712122440338135) {
                                                    votes[1] += 1;
                                                }

                                                else {
                                                    if (x[5] <= 0.17149479687213898) {
                                                        votes[0] += 1;
                                                    }

                                                    else {
                                                        votes[1] += 1;
                                                    }
                                                }
                                            }
                                        }

                                        else {
                                            votes[1] += 1;
                                        }
                                    }

                                    else {
                                        votes[0] += 1;
                                    }
                                }
                            }

                            else {
                                if (x[2] <= 0.33882415294647217) {
                                    if (x[3] <= 0.0513791237026453) {
                                        if (x[3] <= -0.16369208693504333) {
                                            if (x[0] <= 0.10745999589562416) {
                                                if (x[3] <= -0.17631152272224426) {
                                                    votes[1] += 1;
                                                }

                                                else {
                                                    votes[0] += 1;
                                                }
                                            }

                                            else {
                                                votes[1] += 1;
                                            }
                                        }

                                        else {
                                            votes[1] += 1;
                                        }
                                    }

                                    else {
                                        if (x[0] <= 0.05701171047985554) {
                                            votes[0] += 1;
                                        }

                                        else {
                                            votes[1] += 1;
                                        }
                                    }
                                }

                                else {
                                    if (x[1] <= -0.5702651590108871) {
                                        votes[1] += 1;
                                    }

                                    else {
                                        if (x[5] <= -0.21900347620248795) {
                                            votes[1] += 1;
                                        }

                                        else {
                                            votes[0] += 1;
                                        }
                                    }
                                }
                            }
                        }

                        else {
                            if (x[2] <= -0.2501533329486847) {
                                if (x[2] <= -0.34644703567028046) {
                                    if (x[1] <= -0.0663510113954544) {
                                        if (x[5] <= -0.06465817056596279) {
                                            if (x[0] <= -0.23726996779441833) {
                                                votes[0] += 1;
                                            }

                                            else {
                                                votes[1] += 1;
                                            }
                                        }

                                        else {
                                            votes[1] += 1;
                                        }
                                    }

                                    else {
                                        votes[1] += 1;
                                    }
                                }

                                else {
                                    if (x[3] <= -0.051919957622885704) {
                                        if (x[0] <= -0.2510402798652649) {
                                            votes[0] += 1;
                                        }

                                        else {
                                            votes[1] += 1;
                                        }
                                    }

                                    else {
                                        if (x[0] <= -0.35524000227451324) {
                                            votes[0] += 1;
                                        }

                                        else {
                                            votes[1] += 1;
                                        }
                                    }
                                }
                            }

                            else {
                                if (x[0] <= 0.13332761079072952) {
                                    votes[0] += 1;
                                }

                                else {
                                    votes[1] += 1;
                                }
                            }
                        }

                        // tree #13
                        if (x[0] <= 0.05340826138854027) {
                            if (x[0] <= 0.031530178152024746) {
                                if (x[3] <= -0.4701640456914902) {
                                    if (x[5] <= -0.6421784460544586) {
                                        votes[0] += 1;
                                    }

                                    else {
                                        votes[1] += 1;
                                    }
                                }

                                else {
                                    if (x[2] <= -0.3327784091234207) {
                                        if (x[2] <= -0.3466222733259201) {
                                            votes[0] += 1;
                                        }

                                        else {
                                            votes[1] += 1;
                                        }
                                    }

                                    else {
                                        if (x[1] <= -0.029040404595434666) {
                                            if (x[3] <= -0.24175230413675308) {
                                                if (x[1] <= -0.5970959365367889) {
                                                    if (x[5] <= -0.23012745007872581) {
                                                        votes[1] += 1;
                                                    }

                                                    else {
                                                        votes[0] += 1;
                                                    }
                                                }

                                                else {
                                                    votes[0] += 1;
                                                }
                                            }

                                            else {
                                                votes[0] += 1;
                                            }
                                        }

                                        else {
                                            if (x[0] <= -0.04418514855206013) {
                                                votes[0] += 1;
                                            }

                                            else {
                                                if (x[0] <= -0.04161125607788563) {
                                                    votes[1] += 1;
                                                }

                                                else {
                                                    votes[0] += 1;
                                                }
                                            }
                                        }
                                    }
                                }
                            }

                            else {
                                if (x[0] <= 0.0433700829744339) {
                                    votes[1] += 1;
                                }

                                else {
                                    votes[0] += 1;
                                }
                            }
                        }

                        else {
                            if (x[0] <= 0.1307966187596321) {
                                if (x[2] <= 0.2783667743206024) {
                                    if (x[4] <= 0.038347456604242325) {
                                        if (x[4] <= 0.023940677754580975) {
                                            votes[1] += 1;
                                        }

                                        else {
                                            votes[0] += 1;
